
net {
  name = unnamedBN;
  software = "aGrUM 1.2.0";
  node_size = (50 50);
}

node y {
   states = (0 1 );
   label = "y";
   ID = "y";
}

node x0 {
   states = (0 1 );
   label = "x0";
   ID = "x0";
}

node x1 {
   states = (0 1 );
   label = "x1";
   ID = "x1";
}

node x2 {
   states = (0 1 );
   label = "x2";
   ID = "x2";
}

node x3 {
   states = (0 1 2 3 4 );
   label = "x3";
   ID = "x3";
}

node x4 {
   states = (0 1 );
   label = "x4";
   ID = "x4";
}

node x5 {
   states = (0 1 );
   label = "x5";
   ID = "x5";
}

potential ( y | x5   x1   ) {
   data = 
   (((   0.145802   0.854198)   % x1=0   x5=0   
   (   0.392511   0.607489))   % x1=1   x5=0   
   ((   0.546349   0.453651)   % x1=0   x5=1   
   (   0.458326   0.541674)));   % x1=1   x5=1   
}

potential ( x0 | x5   y   x1   ) {
   data = 
   ((((   0.138677   0.861323)   % x1=0   y=0   x5=0   
   (   0.579903   0.420097))   % x1=1   y=0   x5=0   
   ((   0.442826   0.557174)   % x1=0   y=1   x5=0   
   (   0.781915   0.218085)))   % x1=1   y=1   x5=0   
   (((   0.368231   0.631769)   % x1=0   y=0   x5=1   
   (   0.643805   0.356195))   % x1=1   y=0   x5=1   
   ((   0.443165   0.556835)   % x1=0   y=1   x5=1   
   (   0.742902   0.257098))));   % x1=1   y=1   x5=1   
}

potential ( x1 | x5   ) {
   data = 
   ((   0.374991   0.625009)   % x5=0   
   (   0.713594   0.286406));   % x5=1   
}

potential ( x2 | x4   x5   x1   ) {
   data = 
   ((((   0.725329   0.274671)   % x1=0   x5=0   x4=0   
   (   0.623871   0.376129))   % x1=1   x5=0   x4=0   
   ((   0.671215   0.328785)   % x1=0   x5=1   x4=0   
   (   0.802539   0.197461)))   % x1=1   x5=1   x4=0   
   (((   0.383209   0.616791)   % x1=0   x5=0   x4=1   
   (   0.637821   0.362179))   % x1=1   x5=0   x4=1   
   ((   0.952539   0.047461)   % x1=0   x5=1   x4=1   
   (   0.702804   0.297196))));   % x1=1   x5=1   x4=1   
}

potential ( x3 | x0   x5   ) {
   data = 
   (((   0.126701   0.178871   0.281439   0.147403   0.265586)   % x5=0   x0=0   
   (   0.0119332   0.211018   0.30002   0.404037   0.0729912))   % x5=1   x0=0   
   ((   0.166159   0.25956   0.204399   0.220135   0.149746)   % x5=0   x0=1   
   (   0.227054   0.262145   0.110178   0.241487   0.159136)));   % x5=1   x0=1   
}

potential ( x4 | x5   x1   ) {
   data = 
   (((   0.451523   0.548477)   % x1=0   x5=0   
   (   0.826257   0.173743))   % x1=1   x5=0   
   ((   0.795603   0.204397)   % x1=0   x5=1   
   (   0.505833   0.494167)));   % x1=1   x5=1   
}

potential (x5) {
   data = (  0.410091 0.589909);
}


