
net {
  name = unnamedBN;
  software = "aGrUM 1.2.0";
  node_size = (50 50);
}

node y {
   states = (0 1 );
   label = "y";
   ID = "y";
}

node x0 {
   states = ((0.0007;0.250425[ [0.250425;0.50015[ [0.50015;0.749875[ [0.749875;0.9996) );
   label = "x0";
   ID = "x0";
}

node x1 {
   states = ((0.0001;0.249975[ [0.249975;0.49985[ [0.49985;0.749725[ [0.749725;0.9996) );
   label = "x1";
   ID = "x1";
}

node x2 {
   states = ((0.0001;0.249975[ [0.249975;0.49985[ [0.49985;0.749725[ [0.749725;0.9996) );
   label = "x2";
   ID = "x2";
}

potential (y) {
   data = (  0.459452 0.540548);
}

potential ( x0 | y   ) {
   data = 
   ((   0.555211   0.347395   0.0967742   0.000620347)   % y=0   
   (   0.00474684   0.156646   0.389768   0.44884));   % y=1   
}

potential ( x1 | y   x0   ) {
   data = 
   (((   0.25167   0.239421   0.273942   0.234967)   % x0=(0.0007;0.250425[   y=0   
   (   0.044405   0.232682   0.333925   0.388988)   % x0=[0.250425;0.50015[   y=0   
   (   0.00628931   0.00628931   0.18239   0.805031)   % x0=[0.50015;0.749875[   y=0   
   (   0.25   0.25   0.25   0.25))   % x0=[0.749875;0.9996)   y=0   
   ((   0.75   0.0833333   0.0833333   0.0833333)   % x0=(0.0007;0.250425[   y=1   
   (   0.706667   0.25   0.04   0.00333333)   % x0=[0.250425;0.50015[   y=1   
   (   0.280323   0.296496   0.266846   0.156334)   % x0=[0.50015;0.749875[   y=1   
   (   0.24356   0.241218   0.258782   0.25644)));   % x0=[0.749875;0.9996)   y=1   
}

potential (x2) {
   data = (  0.266267 0.241438 0.247146 0.245148);
}


