
net {
  name = unnamedBN;
  software = "aGrUM 1.2.0";
  node_size = (50 50);
}

node y {
   states = (0 1 );
   label = "y";
   ID = "y";
}

node x0 {
   states = ((0.0007;0.250425[ [0.250425;0.50015[ [0.50015;0.749875[ [0.749875;0.9996) );
   label = "x0";
   ID = "x0";
}

node x1 {
   states = ((0.0001;0.249975[ [0.249975;0.49985[ [0.49985;0.749725[ [0.749725;0.9996) );
   label = "x1";
   ID = "x1";
}

node x2 {
   states = ((0.0001;0.249975[ [0.249975;0.49985[ [0.49985;0.749725[ [0.749725;0.9996) );
   label = "x2";
   ID = "x2";
}

potential (y) {
   data = (  0.459452 0.540548);
}

potential ( x0 | y   ) {
   data = 
   ((   0.555211   0.347395   0.0967742   0.000620347)   % y=0   
   (   0.00474684   0.156646   0.389768   0.44884));   % y=1   
}

potential ( x1 | y   ) {
   data = 
   ((   0.155087   0.21402   0.28598   0.344913)   % y=0   
   (   0.334388   0.263186   0.226266   0.17616));   % y=1   
}

potential ( x2 | x1   ) {
   data = 
   ((   0.256208   0.265237   0.224605   0.25395)   % x1=(0.0001;0.249975[   
   (   0.271868   0.224586   0.265957   0.237589)   % x1=[0.249975;0.49985[   
   (   0.270179   0.216368   0.267937   0.245516)   % x1=[0.49985;0.749725[   
   (   0.266816   0.258969   0.230942   0.243274));   % x1=[0.749725;0.9996)   
}


