
net {
  name = unnamedBN;
  software = "aGrUM 1.2.0";
  node_size = (50 50);
}

node y {
   states = (0 1 );
   label = "y";
   ID = "y";
}

node x0 {
   states = (0 1 );
   label = "x0";
   ID = "x0";
}

node x1 {
   states = (0 1 );
   label = "x1";
   ID = "x1";
}

node x2 {
   states = (0 1 );
   label = "x2";
   ID = "x2";
}

node x3 {
   states = (0 1 2 3 4 );
   label = "x3";
   ID = "x3";
}

node x4 {
   states = (0 1 );
   label = "x4";
   ID = "x4";
}

node x5 {
   states = (0 1 );
   label = "x5";
   ID = "x5";
}

potential ( y | x4   ) {
   data = 
   ((   0.449448   0.550552)   % x4=0   
   (   0.385735   0.614265));   % x4=1   
}

potential ( x0 | x1   y   ) {
   data = 
   (((   0.347782   0.652218)   % y=0   x1=0   
   (   0.443017   0.556983))   % y=1   x1=0   
   ((   0.607733   0.392267)   % y=0   x1=1   
   (   0.767533   0.232467)));   % y=1   x1=1   
}

potential (x1) {
   data = (  0.574739 0.425261);
}

potential (x2) {
   data = (  0.677304 0.322696);
}

potential ( x3 | x0   x5   x1   ) {
   data = 
   ((((   0.132154   0.173104   0.28711   0.1396   0.268032)   % x1=0   x5=0   x0=0   
   (   0.124901   0.180853   0.279442   0.150103   0.264701))   % x1=1   x5=0   x0=0   
   ((   0.0139943   0.211094   0.307705   0.398078   0.0691283)   % x1=0   x5=1   x0=0   
   (   0.00920097   0.210896   0.288862   0.412349   0.0786925)))   % x1=1   x5=1   x0=0   
   (((   0.165279   0.255319   0.207832   0.225717   0.145853)   % x1=0   x5=0   x0=1   
   (   0.16729   0.264596   0.200225   0.213323   0.154566))   % x1=1   x5=0   x0=1   
   ((   0.229093   0.259503   0.111426   0.241348   0.158629)   % x1=0   x5=1   x0=1   
   (   0.216955   0.274958   0.104294   0.242052   0.16174))));   % x1=1   x5=1   x0=1   
}

potential (x4) {
   data = (  0.701617 0.298383);
}

potential ( x5 | x4   x1   y   x2   x0   ) {
   data = 
   ((((((   0.0250627   0.974937)   % x0=0   x2=0   y=0   x1=0   x4=0   
   (   0.0757321   0.924268))   % x0=1   x2=0   y=0   x1=0   x4=0   
   ((   0.0188917   0.981108)   % x0=0   x2=1   y=0   x1=0   x4=0   
   (   0.0612245   0.938776)))   % x0=1   x2=1   y=0   x1=0   x4=0   
   (((   0.29506   0.70494)   % x0=0   x2=0   y=1   x1=0   x4=0   
   (   0.296886   0.703114))   % x0=1   x2=0   y=1   x1=0   x4=0   
   ((   0.240079   0.759921)   % x0=0   x2=1   y=1   x1=0   x4=0   
   (   0.250383   0.749617))))   % x0=1   x2=1   y=1   x1=0   x4=0   
   ((((   0.598616   0.401384)   % x0=0   x2=0   y=0   x1=1   x4=0   
   (   0.656678   0.343322))   % x0=1   x2=0   y=0   x1=1   x4=0   
   ((   0.786765   0.213235)   % x0=0   x2=1   y=0   x1=1   x4=0   
   (   0.822785   0.177215)))   % x0=1   x2=1   y=0   x1=1   x4=0   
   (((   0.692138   0.307862)   % x0=0   x2=0   y=1   x1=1   x4=0   
   (   0.654922   0.345078))   % x0=1   x2=0   y=1   x1=1   x4=0   
   ((   0.849653   0.150347)   % x0=0   x2=1   y=1   x1=1   x4=0   
   (   0.806452   0.193548)))))   % x0=1   x2=1   y=1   x1=1   x4=0   
   (((((   0.0436187   0.956381)   % x0=0   x2=0   y=0   x1=0   x4=1   
   (   0.125792   0.874208))   % x0=1   x2=0   y=0   x1=0   x4=1   
   ((   0.422535   0.577465)   % x0=0   x2=1   y=0   x1=0   x4=1   
   (   0.838828   0.161172)))   % x0=1   x2=1   y=0   x1=0   x4=1   
   (((   0.436242   0.563758)   % x0=0   x2=0   y=1   x1=0   x4=1   
   (   0.414182   0.585818))   % x0=1   x2=0   y=1   x1=0   x4=1   
   ((   0.960452   0.039548)   % x0=0   x2=1   y=1   x1=0   x4=1   
   (   0.964091   0.0359086))))   % x0=1   x2=1   y=1   x1=0   x4=1   
   ((((   0.281214   0.718786)   % x0=0   x2=0   y=0   x1=1   x4=1   
   (   0.331349   0.668651))   % x0=1   x2=0   y=0   x1=1   x4=1   
   ((   0.322165   0.677835)   % x0=0   x2=1   y=0   x1=1   x4=1   
   (   0.414097   0.585903)))   % x0=1   x2=1   y=0   x1=1   x4=1   
   (((   0.356753   0.643247)   % x0=0   x2=0   y=1   x1=1   x4=1   
   (   0.321256   0.678744))   % x0=1   x2=0   y=1   x1=1   x4=1   
   ((   0.439418   0.560582)   % x0=0   x2=1   y=1   x1=1   x4=1   
   (   0.373786   0.626214))))));   % x0=1   x2=1   y=1   x1=1   x4=1   
}


