
net {
  name = unnamedBN;
  software = "aGrUM 1.2.0";
  node_size = (50 50);
}

node y {
   states = (0 1 );
   label = "y";
   ID = "y";
}

node x0 {
   states = ((0.0007;0.250425[ [0.250425;0.50015[ [0.50015;0.749875[ [0.749875;0.9996) );
   label = "x0";
   ID = "x0";
}

node x1 {
   states = ((0.0001;0.249975[ [0.249975;0.49985[ [0.49985;0.749725[ [0.749725;0.9996) );
   label = "x1";
   ID = "x1";
}

node x2 {
   states = ((0.0001;0.249975[ [0.249975;0.49985[ [0.49985;0.749725[ [0.749725;0.9996) );
   label = "x2";
   ID = "x2";
}

potential ( y | x0   x1   ) {
   data = 
   (((   0.961702   0.0382979)   % x1=(0.0001;0.249975[   x0=(0.0007;0.250425[   
   (   0.99537   0.00462963)   % x1=[0.249975;0.49985[   x0=(0.0007;0.250425[   
   (   0.995951   0.00404858)   % x1=[0.49985;0.749725[   x0=(0.0007;0.250425[   
   (   0.995283   0.00471698))   % x1=[0.749725;0.9996)   x0=(0.0007;0.250425[   
   ((   0.105485   0.894515)   % x1=(0.0001;0.249975[   x0=[0.250425;0.50015[   
   (   0.635922   0.364078)   % x1=[0.249975;0.49985[   x0=[0.250425;0.50015[   
   (   0.94   0.06)   % x1=[0.49985;0.749725[   x0=[0.250425;0.50015[   
   (   0.995455   0.00454545))   % x1=[0.749725;0.9996)   x0=[0.250425;0.50015[   
   ((   0.00478469   0.995215)   % x1=(0.0001;0.249975[   x0=[0.50015;0.749875[   
   (   0.00452489   0.995475)   % x1=[0.249975;0.49985[   x0=[0.50015;0.749875[   
   (   0.127753   0.872247)   % x1=[0.49985;0.749725[   x0=[0.50015;0.749875[   
   (   0.52459   0.47541))   % x1=[0.749725;0.9996)   x0=[0.50015;0.749875[   
   ((   0.00478469   0.995215)   % x1=(0.0001;0.249975[   x0=[0.749875;0.9996)   
   (   0.00483092   0.995169)   % x1=[0.249975;0.49985[   x0=[0.749875;0.9996)   
   (   0.0045045   0.995495)   % x1=[0.49985;0.749725[   x0=[0.749875;0.9996)   
   (   0.00454545   0.995455)));   % x1=[0.749725;0.9996)   x0=[0.749875;0.9996)   
}

potential (x0) {
   data = (  0.257705 0.244292 0.255137 0.242865);
}

potential (x1) {
   data = (  0.251998 0.240582 0.25371 0.25371);
}

potential (x2) {
   data = (  0.266267 0.241438 0.247146 0.245148);
}


