
net {
  name = unnamedBN;
  software = "aGrUM 1.2.0";
  node_size = (50 50);
}

node y {
   states = (0 1 );
   label = "y";
   ID = "y";
}

node x0 {
   states = (0 1 );
   label = "x0";
   ID = "x0";
}

node x1 {
   states = (0 1 );
   label = "x1";
   ID = "x1";
}

node x2 {
   states = (0 1 );
   label = "x2";
   ID = "x2";
}

node x3 {
   states = (0 1 2 3 4 );
   label = "x3";
   ID = "x3";
}

node x4 {
   states = (0 1 );
   label = "x4";
   ID = "x4";
}

node x5 {
   states = (0 1 );
   label = "x5";
   ID = "x5";
}

potential ( y | x1   x5   ) {
   data = 
   (((   0.145802   0.854198)   % x5=0   x1=0   
   (   0.546349   0.453651))   % x5=1   x1=0   
   ((   0.392511   0.607489)   % x5=0   x1=1   
   (   0.458326   0.541674)));   % x5=1   x1=1   
}

potential ( x0 | x5   y   x1   ) {
   data = 
   ((((   0.138677   0.861323)   % x1=0   y=0   x5=0   
   (   0.579903   0.420097))   % x1=1   y=0   x5=0   
   ((   0.442826   0.557174)   % x1=0   y=1   x5=0   
   (   0.781915   0.218085)))   % x1=1   y=1   x5=0   
   (((   0.368231   0.631769)   % x1=0   y=0   x5=1   
   (   0.643805   0.356195))   % x1=1   y=0   x5=1   
   ((   0.443165   0.556835)   % x1=0   y=1   x5=1   
   (   0.742902   0.257098))));   % x1=1   y=1   x5=1   
}

potential ( x1 | x5   x2   x4   ) {
   data = 
   ((((   0.276056   0.723944)   % x4=0   x2=0   x5=0   
   (   0.532205   0.467795))   % x4=1   x2=0   x5=0   
   ((   0.193231   0.806769)   % x4=0   x2=1   x5=0   
   (   0.763301   0.236699)))   % x4=1   x2=1   x5=0   
   (((   0.76616   0.23384)   % x4=0   x2=0   x5=1   
   (   0.582741   0.417259))   % x4=1   x2=0   x5=1   
   ((   0.867072   0.132928)   % x4=0   x2=1   x5=1   
   (   0.141304   0.858696))));   % x4=1   x2=1   x5=1   
}

potential (x2) {
   data = (  0.677304 0.322696);
}

potential ( x3 | x0   x5   ) {
   data = 
   (((   0.126701   0.178871   0.281439   0.147403   0.265586)   % x5=0   x0=0   
   (   0.0119332   0.211018   0.30002   0.404037   0.0729912))   % x5=1   x0=0   
   ((   0.166159   0.25956   0.204399   0.220135   0.149746)   % x5=0   x0=1   
   (   0.227054   0.262145   0.110178   0.241487   0.159136)));   % x5=1   x0=1   
}

potential (x4) {
   data = (  0.701617 0.298383);
}

potential ( x5 | x2   x4   ) {
   data = 
   (((   0.383493   0.616507)   % x4=0   x2=0   
   (   0.30156   0.69844))   % x4=1   x2=0   
   ((   0.437413   0.562587)   % x4=0   x2=1   
   (   0.702384   0.297616)));   % x4=1   x2=1   
}


