
net {
  name = unnamedBN;
  software = "aGrUM 1.2.0";
  node_size = (50 50);
}

node y {
   states = (0 1 );
   label = "y";
   ID = "y";
}

node x0 {
   states = ((0.000357581;0.250258[ [0.250258;0.500158[ [0.500158;0.750058[ [0.750058;0.999959) );
   label = "x0";
   ID = "x0";
}

node x1 {
   states = (0.0 1.0 );
   label = "x1";
   ID = "x1";
}

potential ( y | x0   ) {
   data = 
   ((   0.997745   0.00225479)   % x0=(0.000357581;0.250258[   
   (   0.00115607   0.998844)   % x0=[0.250258;0.500158[   
   (   0.997743   0.00225734)   % x0=[0.500158;0.750058[   
   (   0.00114943   0.998851));   % x0=[0.750058;0.999959)   
}

potential (x0) {
   data = (  0.252854 0.246575 0.252568 0.248002);
}

potential ( x1 | x0   ) {
   data = 
   ((   0.998873   0.0011274)   % x0=(0.000357581;0.250258[   
   (   0.998844   0.00115607)   % x0=[0.250258;0.500158[   
   (   0.00112867   0.998871)   % x0=[0.500158;0.750058[   
   (   0.808046   0.191954));   % x0=[0.750058;0.999959)   
}


