
net {
  name = unnamedBN;
  software = "aGrUM 1.2.0";
  node_size = (50 50);
}

node y {
   states = (0 1 );
   label = "y";
   ID = "y";
}

node x0 {
   states = ((0.000357581;0.250258[ [0.250258;0.500158[ [0.500158;0.750058[ [0.750058;0.999959) );
   label = "x0";
   ID = "x0";
}

node x1 {
   states = (0.0 1.0 );
   label = "x1";
   ID = "x1";
}

potential (y) {
   data = (  0.504854 0.495146);
}

potential ( x0 | y   ) {
   data = 
   ((   0.499718   0.000564653   0.499153   0.000564653)   % y=0   
   (   0.00115141   0.497409   0.00115141   0.500288));   % y=1   
}

potential ( x1 | y   ) {
   data = 
   ((   0.500283   0.499717)   % y=0   
   (   0.90317   0.09683));   % y=1   
}


