
net {
  name = unnamedBN;
  software = "aGrUM 1.2.0";
  node_size = (50 50);
}

node y {
   states = (0 1 );
   label = "y";
   ID = "y";
}

node x0 {
   states = ((0.000357581;0.25096[ [0.25096;0.50351[ [0.50351;0.753274[ [0.753274;0.999959) );
   label = "x0";
   ID = "x0";
}

node x1 {
   states = (0.0 1.0 );
   label = "x1";
   ID = "x1";
}

node x2 {
   states = ((0.000324503;0.250249[ [0.250249;0.500898[ [0.500898;0.75181[ [0.75181;0.999987) );
   label = "x2";
   ID = "x2";
}

potential ( y | x0   ) {
   data = 
   ((   0.994382   0.00561798)   % x0=(0.000357581;0.25096[   
   (   0.0103448   0.989655)   % x0=[0.25096;0.50351[   
   (   0.987599   0.0124014)   % x0=[0.50351;0.753274[   
   (   0.00116144   0.998839));   % x0=[0.753274;0.999959)   
}

potential (x0) {
   data = (  0.25371 0.248002 0.252854 0.245434);
}

potential ( x1 | x0   y   ) {
   data = 
   (((   0.998871   0.00112867)   % y=0   x0=(0.000357581;0.25096[   
   (   0.833333   0.166667))   % y=1   x0=(0.000357581;0.25096[   
   ((   0.1   0.9)   % y=0   x0=[0.25096;0.50351[   
   (   0.99884   0.00116009))   % y=1   x0=[0.25096;0.50351[   
   ((   0.00114025   0.99886)   % y=0   x0=[0.50351;0.753274[   
   (   0.0833333   0.916667))   % y=1   x0=[0.50351;0.753274[   
   ((   0.5   0.5)   % y=0   x0=[0.753274;0.999959)   
   (   0.816492   0.183508)));   % y=1   x0=[0.753274;0.999959)   
}

potential (x2) {
   data = (  0.257991 0.249715 0.244007 0.248288);
}


