
net {
  name = unnamedBN;
  software = "aGrUM 1.2.0";
  node_size = (50 50);
}

node y {
   states = (0 1 );
   label = "y";
   ID = "y";
}

node x0 {
   states = ((0.000357581;0.25096[ [0.25096;0.50351[ [0.50351;0.753274[ [0.753274;0.999959) );
   label = "x0";
   ID = "x0";
}

node x1 {
   states = (0.0 1.0 );
   label = "x1";
   ID = "x1";
}

node x2 {
   states = ((0.000324503;0.250249[ [0.250249;0.500898[ [0.500898;0.75181[ [0.75181;0.999987) );
   label = "x2";
   ID = "x2";
}

potential ( y | x0   x1   ) {
   data = 
   (((   0.994382   0.00561798)   % x1=0.0   x0=(0.000357581;0.25096[   
   (   0.5   0.5))   % x1=1.0   x0=(0.000357581;0.25096[   
   ((   0.00116009   0.99884)   % x1=0.0   x0=[0.25096;0.50351[   
   (   0.9   0.1))   % x1=1.0   x0=[0.25096;0.50351[   
   ((   0.5   0.5)   % x1=0.0   x0=[0.50351;0.753274[   
   (   0.987599   0.0124014))   % x1=1.0   x0=[0.50351;0.753274[   
   ((   0.00142045   0.99858)   % x1=0.0   x0=[0.753274;0.999959)   
   (   0.00628931   0.993711)));   % x1=1.0   x0=[0.753274;0.999959)   
}

potential ( x0 | x1   ) {
   data = 
   ((   0.362266   0.350856   0.000407498   0.286471)   % x1=0.0   
   (   0.000948767   0.0085389   0.840607   0.149905));   % x1=1.0   
}

potential (x1) {
   data = (  0.699886 0.300114);
}

potential (x2) {
   data = (  0.257991 0.249715 0.244007 0.248288);
}


